digraph Tree {
node [shape=box, style="filled", color="black"] ;
0 [label="telephone <= 0.5\nentropy = 0.438\nsamples = 27657\nvalue = [25152, 2505]\nclass = No", fillcolor="#e58139e6"] ;
1 [label="month <= 3.5\nentropy = 0.519\nsamples = 17414\nvalue = [15388, 2026]\nclass = No", fillcolor="#e58139dd"] ;
0 -> 1 [labeldistance=2.5, labelangle=45, headlabel="True"] ;
2 [label="day_of_week <= 1.5\nentropy = 0.997\nsamples = 275\nvalue = [147, 128]\nclass = No", fillcolor="#e5813921"] ;
1 -> 2 ;
3 [label="job_services <= 0.5\nentropy = 0.904\nsamples = 72\nvalue = [49, 23]\nclass = No", fillcolor="#e5813987"] ;
2 -> 3 ;
4 [label="job_self-employed <= 0.5\nentropy = 0.923\nsamples = 68\nvalue = [45, 23]\nclass = No", fillcolor="#e581397d"] ;
3 -> 4 ;
5 [label="loan <= 0.5\nentropy = 0.913\nsamples = 67\nvalue = [45, 22]\nclass = No", fillcolor="#e5813982"] ;
4 -> 5 ;
6 [label="(...)", fillcolor="#C0C0C0"] ;
5 -> 6 ;
63 [label="(...)", fillcolor="#C0C0C0"] ;
5 -> 63 ;
68 [label="entropy = 0.0\nsamples = 1\nvalue = [0, 1]\nclass = Yes", fillcolor="#399de5ff"] ;
4 -> 68 ;
69 [label="entropy = 0.0\nsamples = 4\nvalue = [4, 0]\nclass = No", fillcolor="#e58139ff"] ;
3 -> 69 ;
70 [label="day_of_week <= 3.5\nentropy = 0.999\nsamples = 203\nvalue = [98, 105]\nclass = Yes", fillcolor="#399de511"] ;
2 -> 70 ;
71 [label="job_management <= 0.5\nentropy = 0.976\nsamples = 110\nvalue = [45, 65]\nclass = Yes", fillcolor="#399de54e"] ;
70 -> 71 ;
72 [label="default <= 0.5\nentropy = 0.987\nsamples = 104\nvalue = [45, 59]\nclass = Yes", fillcolor="#399de53d"] ;
71 -> 72 ;
73 [label="(...)", fillcolor="#C0C0C0"] ;
72 -> 73 ;
162 [label="(...)", fillcolor="#C0C0C0"] ;
72 -> 162 ;
163 [label="entropy = 0.0\nsamples = 6\nvalue = [0, 6]\nclass = Yes", fillcolor="#399de5ff"] ;
71 -> 163 ;
164 [label="age <= 21.0\nentropy = 0.986\nsamples = 93\nvalue = [53, 40]\nclass = No", fillcolor="#e581393f"] ;
70 -> 164 ;
165 [label="entropy = 0.0\nsamples = 2\nvalue = [0, 2]\nclass = Yes", fillcolor="#399de5ff"] ;
164 -> 165 ;
166 [label="age <= 24.5\nentropy = 0.98\nsamples = 91\nvalue = [53, 38]\nclass = No", fillcolor="#e5813948"] ;
164 -> 166 ;
167 [label="(...)", fillcolor="#C0C0C0"] ;
166 -> 167 ;
168 [label="(...)", fillcolor="#C0C0C0"] ;
166 -> 168 ;
247 [label="age <= 60.5\nentropy = 0.502\nsamples = 17139\nvalue = [15241, 1898]\nclass = No", fillcolor="#e58139df"] ;
1 -> 247 ;
248 [label="default <= 0.5\nentropy = 0.485\nsamples = 16787\nvalue = [15024, 1763]\nclass = No", fillcolor="#e58139e1"] ;
247 -> 248 ;
249 [label="month <= 6.5\nentropy = 0.515\nsamples = 13849\nvalue = [12255, 1594]\nclass = No", fillcolor="#e58139de"] ;
248 -> 249 ;
250 [label="month <= 5.5\nentropy = 0.605\nsamples = 4922\nvalue = [4193, 729]\nclass = No", fillcolor="#e58139d3"] ;
249 -> 250 ;
251 [label="(...)", fillcolor="#C0C0C0"] ;
250 -> 251 ;
2412 [label="(...)", fillcolor="#C0C0C0"] ;
250 -> 2412 ;
2795 [label="month <= 11.5\nentropy = 0.459\nsamples = 8927\nvalue = [8062, 865]\nclass = No", fillcolor="#e58139e4"] ;
249 -> 2795 ;
2796 [label="(...)", fillcolor="#C0C0C0"] ;
2795 -> 2796 ;
6321 [label="(...)", fillcolor="#C0C0C0"] ;
2795 -> 6321 ;
6360 [label="age <= 39.5\nentropy = 0.318\nsamples = 2938\nvalue = [2769, 169]\nclass = No", fillcolor="#e58139ef"] ;
248 -> 6360 ;
6361 [label="job_housemaid <= 0.5\nentropy = 0.367\nsamples = 1138\nvalue = [1058, 80]\nclass = No", fillcolor="#e58139ec"] ;
6360 -> 6361 ;
6362 [label="(...)", fillcolor="#C0C0C0"] ;
6361 -> 6362 ;
6731 [label="(...)", fillcolor="#C0C0C0"] ;
6361 -> 6731 ;
6732 [label="age <= 58.5\nentropy = 0.284\nsamples = 1800\nvalue = [1711, 89]\nclass = No", fillcolor="#e58139f2"] ;
6360 -> 6732 ;
6733 [label="(...)", fillcolor="#C0C0C0"] ;
6732 -> 6733 ;
7174 [label="(...)", fillcolor="#C0C0C0"] ;
6732 -> 7174 ;
7201 [label="age <= 82.5\nentropy = 0.96\nsamples = 352\nvalue = [217, 135]\nclass = No", fillcolor="#e5813960"] ;
247 -> 7201 ;
7202 [label="job_blue-collar <= 0.5\nentropy = 0.97\nsamples = 326\nvalue = [196, 130]\nclass = No", fillcolor="#e5813956"] ;
7201 -> 7202 ;
7203 [label="education <= 5.5\nentropy = 0.976\nsamples = 316\nvalue = [187, 129]\nclass = No", fillcolor="#e581394f"] ;
7202 -> 7203 ;
7204 [label="(...)", fillcolor="#C0C0C0"] ;
7203 -> 7204 ;
7407 [label="(...)", fillcolor="#C0C0C0"] ;
7203 -> 7407 ;
7470 [label="education <= 4.5\nentropy = 0.469\nsamples = 10\nvalue = [9, 1]\nclass = No", fillcolor="#e58139e3"] ;
7202 -> 7470 ;
7471 [label="(...)", fillcolor="#C0C0C0"] ;
7470 -> 7471 ;
7472 [label="(...)", fillcolor="#C0C0C0"] ;
7470 -> 7472 ;
7473 [label="default <= 0.5\nentropy = 0.706\nsamples = 26\nvalue = [21, 5]\nclass = No", fillcolor="#e58139c2"] ;
7201 -> 7473 ;
7474 [label="housing <= 0.5\nentropy = 0.559\nsamples = 23\nvalue = [20, 3]\nclass = No", fillcolor="#e58139d9"] ;
7473 -> 7474 ;
7475 [label="(...)", fillcolor="#C0C0C0"] ;
7474 -> 7475 ;
7482 [label="(...)", fillcolor="#C0C0C0"] ;
7474 -> 7482 ;
7483 [label="housing <= 0.5\nentropy = 0.918\nsamples = 3\nvalue = [1, 2]\nclass = Yes", fillcolor="#399de57f"] ;
7473 -> 7483 ;
7484 [label="(...)", fillcolor="#C0C0C0"] ;
7483 -> 7484 ;
7485 [label="(...)", fillcolor="#C0C0C0"] ;
7483 -> 7485 ;
7486 [label="month <= 8.5\nentropy = 0.272\nsamples = 10243\nvalue = [9764, 479]\nclass = No", fillcolor="#e58139f2"] ;
0 -> 7486 [labeldistance=2.5, labelangle=-45, headlabel="False"] ;
7487 [label="month <= 4.5\nentropy = 0.246\nsamples = 9777\nvalue = [9379, 398]\nclass = No", fillcolor="#e58139f4"] ;
7486 -> 7487 ;
7488 [label="age <= 39.5\nentropy = 0.792\nsamples = 168\nvalue = [128, 40]\nclass = No", fillcolor="#e58139af"] ;
7487 -> 7488 ;
7489 [label="default <= 0.5\nentropy = 0.893\nsamples = 100\nvalue = [69, 31]\nclass = No", fillcolor="#e581398c"] ;
7488 -> 7489 ;
7490 [label="age <= 24.5\nentropy = 0.918\nsamples = 93\nvalue = [62, 31]\nclass = No", fillcolor="#e581397f"] ;
7489 -> 7490 ;
7491 [label="(...)", fillcolor="#C0C0C0"] ;
7490 -> 7491 ;
7492 [label="(...)", fillcolor="#C0C0C0"] ;
7490 -> 7492 ;
7567 [label="entropy = 0.0\nsamples = 7\nvalue = [7, 0]\nclass = No", fillcolor="#e58139ff"] ;
7489 -> 7567 ;
7568 [label="age <= 74.5\nentropy = 0.564\nsamples = 68\nvalue = [59, 9]\nclass = No", fillcolor="#e58139d8"] ;
7488 -> 7568 ;
7569 [label="age <= 57.5\nentropy = 0.449\nsamples = 64\nvalue = [58, 6]\nclass = No", fillcolor="#e58139e5"] ;
7568 -> 7569 ;
7570 [label="(...)", fillcolor="#C0C0C0"] ;
7569 -> 7570 ;
7593 [label="(...)", fillcolor="#C0C0C0"] ;
7569 -> 7593 ;
7594 [label="day_of_week <= 4.0\nentropy = 0.811\nsamples = 4\nvalue = [1, 3]\nclass = Yes", fillcolor="#399de5aa"] ;
7568 -> 7594 ;
7595 [label="(...)", fillcolor="#C0C0C0"] ;
7594 -> 7595 ;
7596 [label="(...)", fillcolor="#C0C0C0"] ;
7594 -> 7596 ;
7597 [label="age <= 77.0\nentropy = 0.23\nsamples = 9609\nvalue = [9251, 358]\nclass = No", fillcolor="#e58139f5"] ;
7487 -> 7597 ;
7598 [label="month <= 5.5\nentropy = 0.228\nsamples = 9606\nvalue = [9251, 355]\nclass = No", fillcolor="#e58139f5"] ;
7597 -> 7598 ;
7599 [label="day_of_week <= 4.5\nentropy = 0.201\nsamples = 5623\nvalue = [5447, 176]\nclass = No", fillcolor="#e58139f7"] ;
7598 -> 7599 ;
7600 [label="(...)", fillcolor="#C0C0C0"] ;
7599 -> 7600 ;
8347 [label="(...)", fillcolor="#C0C0C0"] ;
7599 -> 8347 ;
8632 [label="job_blue-collar <= 0.5\nentropy = 0.265\nsamples = 3983\nvalue = [3804, 179]\nclass = No", fillcolor="#e58139f3"] ;
7598 -> 8632 ;
8633 [label="(...)", fillcolor="#C0C0C0"] ;
8632 -> 8633 ;
9228 [label="(...)", fillcolor="#C0C0C0"] ;
8632 -> 9228 ;
9567 [label="entropy = 0.0\nsamples = 3\nvalue = [0, 3]\nclass = Yes", fillcolor="#399de5ff"] ;
7597 -> 9567 ;
9568 [label="month <= 10.5\nentropy = 0.666\nsamples = 466\nvalue = [385, 81]\nclass = No", fillcolor="#e58139c9"] ;
7486 -> 9568 ;
9569 [label="age <= 49.5\nentropy = 0.874\nsamples = 153\nvalue = [108, 45]\nclass = No", fillcolor="#e5813995"] ;
9568 -> 9569 ;
9570 [label="month <= 9.5\nentropy = 0.957\nsamples = 111\nvalue = [69, 42]\nclass = No", fillcolor="#e5813964"] ;
9569 -> 9570 ;
9571 [label="age <= 32.5\nentropy = 0.759\nsamples = 41\nvalue = [32, 9]\nclass = No", fillcolor="#e58139b7"] ;
9570 -> 9571 ;
9572 [label="(...)", fillcolor="#C0C0C0"] ;
9571 -> 9572 ;
9579 [label="(...)", fillcolor="#C0C0C0"] ;
9571 -> 9579 ;
9594 [label="job_services <= 0.5\nentropy = 0.998\nsamples = 70\nvalue = [37, 33]\nclass = No", fillcolor="#e581391c"] ;
9570 -> 9594 ;
9595 [label="(...)", fillcolor="#C0C0C0"] ;
9594 -> 9595 ;
9652 [label="(...)", fillcolor="#C0C0C0"] ;
9594 -> 9652 ;
9653 [label="day_of_week <= 3.5\nentropy = 0.371\nsamples = 42\nvalue = [39, 3]\nclass = No", fillcolor="#e58139eb"] ;
9569 -> 9653 ;
9654 [label="entropy = 0.0\nsamples = 29\nvalue = [29, 0]\nclass = No", fillcolor="#e58139ff"] ;
9653 -> 9654 ;
9655 [label="month <= 9.5\nentropy = 0.779\nsamples = 13\nvalue = [10, 3]\nclass = No", fillcolor="#e58139b3"] ;
9653 -> 9655 ;
9656 [label="(...)", fillcolor="#C0C0C0"] ;
9655 -> 9656 ;
9657 [label="(...)", fillcolor="#C0C0C0"] ;
9655 -> 9657 ;
9664 [label="job_entrepreneur <= 0.5\nentropy = 0.515\nsamples = 313\nvalue = [277, 36]\nclass = No", fillcolor="#e58139de"] ;
9568 -> 9664 ;
9665 [label="age <= 57.5\nentropy = 0.542\nsamples = 289\nvalue = [253, 36]\nclass = No", fillcolor="#e58139db"] ;
9664 -> 9665 ;
9666 [label="month <= 11.5\nentropy = 0.507\nsamples = 276\nvalue = [245, 31]\nclass = No", fillcolor="#e58139df"] ;
9665 -> 9666 ;
9667 [label="(...)", fillcolor="#C0C0C0"] ;
9666 -> 9667 ;
9770 [label="(...)", fillcolor="#C0C0C0"] ;
9666 -> 9770 ;
9779 [label="month <= 11.5\nentropy = 0.961\nsamples = 13\nvalue = [8, 5]\nclass = No", fillcolor="#e5813960"] ;
9665 -> 9779 ;
9780 [label="(...)", fillcolor="#C0C0C0"] ;
9779 -> 9780 ;
9789 [label="(...)", fillcolor="#C0C0C0"] ;
9779 -> 9789 ;
9790 [label="entropy = 0.0\nsamples = 24\nvalue = [24, 0]\nclass = No", fillcolor="#e58139ff"] ;
9664 -> 9790 ;
}