digraph Tree {
node [shape=box, style="filled", color="black"] ;
0 [label="X <= 3.606\nmse = 1.001\nsamples = 100\nvalue = 0.037", fillcolor="#e581397f"] ;
1 [label="X <= 2.636\nmse = 0.541\nsamples = 60\nvalue = 0.61", fillcolor="#e58139a3"] ;
0 -> 1 [labeldistance=2.5, labelangle=45, headlabel="True"] ;
2 [label="X <= 1.061\nmse = 0.477\nsamples = 44\nvalue = 0.819", fillcolor="#e58139b0"] ;
1 -> 2 ;
3 [label="X <= 0.515\nmse = 0.281\nsamples = 18\nvalue = 0.448", fillcolor="#e5813999"] ;
2 -> 3 ;
4 [label="X <= 0.091\nmse = 0.141\nsamples = 9\nvalue = 0.838", fillcolor="#e58139b2"] ;
3 -> 4 ;
5 [label="X <= 0.03\nmse = 0.009\nsamples = 2\nvalue = 0.259", fillcolor="#e581398d"] ;
4 -> 5 ;
6 [label="mse = 0.0\nsamples = 1\nvalue = 0.162", fillcolor="#e5813987"] ;
5 -> 6 ;
7 [label="mse = 0.0\nsamples = 1\nvalue = 0.355", fillcolor="#e5813993"] ;
5 -> 7 ;
8 [label="X <= 0.394\nmse = 0.055\nsamples = 7\nvalue = 1.004", fillcolor="#e58139bc"] ;
4 -> 8 ;
9 [label="X <= 0.212\nmse = 0.053\nsamples = 5\nvalue = 1.08", fillcolor="#e58139c1"] ;
8 -> 9 ;
10 [label="X <= 0.152\nmse = 0.013\nsamples = 2\nvalue = 0.847", fillcolor="#e58139b2"] ;
9 -> 10 ;
11 [label="mse = 0.0\nsamples = 1\nvalue = 0.733", fillcolor="#e58139ab"] ;
10 -> 11 ;
12 [label="mse = 0.0\nsamples = 1\nvalue = 0.961", fillcolor="#e58139b9"] ;
10 -> 12 ;
13 [label="X <= 0.333\nmse = 0.02\nsamples = 3\nvalue = 1.236", fillcolor="#e58139cb"] ;
9 -> 13 ;
14 [label="X <= 0.273\nmse = 0.02\nsamples = 2\nvalue = 1.179", fillcolor="#e58139c7"] ;
13 -> 14 ;
15 [label="mse = 0.0\nsamples = 1\nvalue = 1.32", fillcolor="#e58139d0"] ;
14 -> 15 ;
16 [label="mse = 0.0\nsamples = 1\nvalue = 1.038", fillcolor="#e58139be"] ;
14 -> 16 ;
17 [label="mse = -0.0\nsamples = 1\nvalue = 1.349", fillcolor="#e58139d2"] ;
13 -> 17 ;
18 [label="X <= 0.455\nmse = 0.007\nsamples = 2\nvalue = 0.813", fillcolor="#e58139b0"] ;
8 -> 18 ;
19 [label="mse = 0.0\nsamples = 1\nvalue = 0.897", fillcolor="#e58139b5"] ;
18 -> 19 ;
20 [label="mse = 0.0\nsamples = 1\nvalue = 0.728", fillcolor="#e58139ab"] ;
18 -> 20 ;
21 [label="X <= 0.939\nmse = 0.118\nsamples = 9\nvalue = 0.059", fillcolor="#e5813980"] ;
3 -> 21 ;
22 [label="X <= 0.636\nmse = 0.069\nsamples = 7\nvalue = -0.072", fillcolor="#e5813978"] ;
21 -> 22 ;
23 [label="X <= 0.576\nmse = 0.004\nsamples = 2\nvalue = 0.302", fillcolor="#e581398f"] ;
22 -> 23 ;
24 [label="mse = 0.0\nsamples = 1\nvalue = 0.363", fillcolor="#e5813993"] ;
23 -> 24 ;
25 [label="mse = -0.0\nsamples = 1\nvalue = 0.241", fillcolor="#e581398c"] ;
23 -> 25 ;
26 [label="X <= 0.818\nmse = 0.017\nsamples = 5\nvalue = -0.221", fillcolor="#e581396e"] ;
22 -> 26 ;
27 [label="X <= 0.697\nmse = 0.0\nsamples = 3\nvalue = -0.327", fillcolor="#e5813967"] ;
26 -> 27 ;
28 [label="mse = 0.0\nsamples = 1\nvalue = -0.344", fillcolor="#e5813966"] ;
27 -> 28 ;
29 [label="X <= 0.758\nmse = 0.0\nsamples = 2\nvalue = -0.318", fillcolor="#e5813968"] ;
27 -> 29 ;
30 [label="mse = 0.0\nsamples = 1\nvalue = -0.307", fillcolor="#e5813969"] ;
29 -> 30 ;
31 [label="mse = -0.0\nsamples = 1\nvalue = -0.329", fillcolor="#e5813967"] ;
29 -> 31 ;
32 [label="X <= 0.879\nmse = 0.0\nsamples = 2\nvalue = -0.062", fillcolor="#e5813978"] ;
26 -> 32 ;
33 [label="mse = 0.0\nsamples = 1\nvalue = -0.066", fillcolor="#e5813978"] ;
32 -> 33 ;
34 [label="mse = 0.0\nsamples = 1\nvalue = -0.058", fillcolor="#e5813979"] ;
32 -> 34 ;
35 [label="X <= 1.0\nmse = 0.024\nsamples = 2\nvalue = 0.514", fillcolor="#e581399d"] ;
21 -> 35 ;
36 [label="mse = 0.0\nsamples = 1\nvalue = 0.359", fillcolor="#e5813993"] ;
35 -> 36 ;
37 [label="mse = -0.0\nsamples = 1\nvalue = 0.668", fillcolor="#e58139a7"] ;
35 -> 37 ;
38 [label="X <= 1.485\nmse = 0.451\nsamples = 26\nvalue = 1.075", fillcolor="#e58139c1"] ;
2 -> 38 ;
39 [label="X <= 1.182\nmse = 0.086\nsamples = 7\nvalue = 1.729", fillcolor="#e58139ea"] ;
38 -> 39 ;
40 [label="X <= 1.121\nmse = 0.041\nsamples = 2\nvalue = 1.354", fillcolor="#e58139d3"] ;
39 -> 40 ;
41 [label="mse = 0.0\nsamples = 1\nvalue = 1.151", fillcolor="#e58139c6"] ;
40 -> 41 ;
42 [label="mse = 0.0\nsamples = 1\nvalue = 1.557", fillcolor="#e58139e0"] ;
40 -> 42 ;
43 [label="X <= 1.242\nmse = 0.026\nsamples = 5\nvalue = 1.879", fillcolor="#e58139f4"] ;
39 -> 43 ;
44 [label="mse = 0.0\nsamples = 1\nvalue = 1.662", fillcolor="#e58139e6"] ;
43 -> 44 ;
45 [label="X <= 1.424\nmse = 0.018\nsamples = 4\nvalue = 1.933", fillcolor="#e58139f7"] ;
43 -> 45 ;
46 [label="X <= 1.364\nmse = 0.004\nsamples = 3\nvalue = 2.002", fillcolor="#e58139fc"] ;
45 -> 46 ;
47 [label="X <= 1.303\nmse = 0.0\nsamples = 2\nvalue = 2.049", fillcolor="#e58139ff"] ;
46 -> 47 ;
48 [label="mse = 0.0\nsamples = 1\nvalue = 2.047", fillcolor="#e58139ff"] ;
47 -> 48 ;
49 [label="mse = -0.0\nsamples = 1\nvalue = 2.051", fillcolor="#e58139ff"] ;
47 -> 49 ;
50 [label="mse = 0.0\nsamples = 1\nvalue = 1.908", fillcolor="#e58139f6"] ;
46 -> 50 ;
51 [label="mse = 0.0\nsamples = 1\nvalue = 1.726", fillcolor="#e58139ea"] ;
45 -> 51 ;
52 [label="X <= 2.091\nmse = 0.371\nsamples = 19\nvalue = 0.835", fillcolor="#e58139b1"] ;
38 -> 52 ;
53 [label="X <= 1.606\nmse = 0.177\nsamples = 10\nvalue = 0.397", fillcolor="#e5813996"] ;
52 -> 53 ;
54 [label="X <= 1.545\nmse = 0.022\nsamples = 2\nvalue = 1.108", fillcolor="#e58139c3"] ;
53 -> 54 ;
55 [label="mse = 0.0\nsamples = 1\nvalue = 1.258", fillcolor="#e58139cc"] ;
54 -> 55 ;
56 [label="mse = -0.0\nsamples = 1\nvalue = 0.958", fillcolor="#e58139b9"] ;
54 -> 56 ;
57 [label="X <= 2.03\nmse = 0.057\nsamples = 8\nvalue = 0.219", fillcolor="#e581398a"] ;
53 -> 57 ;
58 [label="X <= 1.727\nmse = 0.04\nsamples = 7\nvalue = 0.163", fillcolor="#e5813987"] ;
57 -> 58 ;
59 [label="X <= 1.667\nmse = 0.015\nsamples = 2\nvalue = 0.4", fillcolor="#e5813996"] ;
58 -> 59 ;
60 [label="mse = 0.0\nsamples = 1\nvalue = 0.521", fillcolor="#e581399d"] ;
59 -> 60 ;
61 [label="mse = 0.0\nsamples = 1\nvalue = 0.278", fillcolor="#e581398e"] ;
59 -> 61 ;
62 [label="X <= 1.97\nmse = 0.019\nsamples = 5\nvalue = 0.068", fillcolor="#e5813981"] ;
58 -> 62 ;
63 [label="X <= 1.788\nmse = 0.008\nsamples = 4\nvalue = 0.013", fillcolor="#e581397d"] ;
62 -> 63 ;
64 [label="mse = 0.0\nsamples = 1\nvalue = 0.135", fillcolor="#e5813985"] ;
63 -> 64 ;
65 [label="X <= 1.909\nmse = 0.004\nsamples = 3\nvalue = -0.027", fillcolor="#e581397a"] ;
63 -> 65 ;
66 [label="X <= 1.848\nmse = 0.001\nsamples = 2\nvalue = -0.072", fillcolor="#e5813978"] ;
65 -> 66 ;
67 [label="mse = 0.0\nsamples = 1\nvalue = -0.096", fillcolor="#e5813976"] ;
66 -> 67 ;
68 [label="mse = -0.0\nsamples = 1\nvalue = -0.049", fillcolor="#e5813979"] ;
66 -> 68 ;
69 [label="mse = -0.0\nsamples = 1\nvalue = 0.062", fillcolor="#e5813980"] ;
65 -> 69 ;
70 [label="mse = 0.0\nsamples = 1\nvalue = 0.288", fillcolor="#e581398f"] ;
62 -> 70 ;
71 [label="mse = 0.0\nsamples = 1\nvalue = 0.614", fillcolor="#e58139a3"] ;
57 -> 71 ;
72 [label="X <= 2.515\nmse = 0.137\nsamples = 9\nvalue = 1.321", fillcolor="#e58139d0"] ;
52 -> 72 ;
73 [label="X <= 2.212\nmse = 0.085\nsamples = 7\nvalue = 1.461", fillcolor="#e58139d9"] ;
72 -> 73 ;
74 [label="X <= 2.152\nmse = 0.01\nsamples = 2\nvalue = 1.11", fillcolor="#e58139c3"] ;
73 -> 74 ;
75 [label="mse = 0.0\nsamples = 1\nvalue = 1.011", fillcolor="#e58139bd"] ;
74 -> 75 ;
76 [label="mse = 0.0\nsamples = 1\nvalue = 1.208", fillcolor="#e58139c9"] ;
74 -> 76 ;
77 [label="X <= 2.455\nmse = 0.046\nsamples = 5\nvalue = 1.602", fillcolor="#e58139e2"] ;
73 -> 77 ;
78 [label="X <= 2.394\nmse = 0.016\nsamples = 4\nvalue = 1.693", fillcolor="#e58139e8"] ;
77 -> 78 ;
79 [label="X <= 2.273\nmse = 0.013\nsamples = 3\nvalue = 1.739", fillcolor="#e58139eb"] ;
78 -> 79 ;
80 [label="mse = 0.0\nsamples = 1\nvalue = 1.582", fillcolor="#e58139e1"] ;
79 -> 80 ;
81 [label="X <= 2.333\nmse = 0.002\nsamples = 2\nvalue = 1.817", fillcolor="#e58139f0"] ;
79 -> 81 ;
82 [label="mse = 0.0\nsamples = 1\nvalue = 1.859", fillcolor="#e58139f3"] ;
81 -> 82 ;
83 [label="mse = 0.0\nsamples = 1\nvalue = 1.775", fillcolor="#e58139ed"] ;
81 -> 83 ;
84 [label="mse = 0.0\nsamples = 1\nvalue = 1.556", fillcolor="#e58139df"] ;
78 -> 84 ;
85 [label="mse = -0.0\nsamples = 1\nvalue = 1.238", fillcolor="#e58139cb"] ;
77 -> 85 ;
86 [label="X <= 2.576\nmse = 0.006\nsamples = 2\nvalue = 0.83", fillcolor="#e58139b1"] ;
72 -> 86 ;
87 [label="mse = 0.0\nsamples = 1\nvalue = 0.908", fillcolor="#e58139b6"] ;
86 -> 87 ;
88 [label="mse = -0.0\nsamples = 1\nvalue = 0.751", fillcolor="#e58139ac"] ;
86 -> 88 ;
89 [label="X <= 3.182\nmse = 0.268\nsamples = 16\nvalue = 0.036", fillcolor="#e581397f"] ;
1 -> 89 ;
90 [label="X <= 2.697\nmse = 0.072\nsamples = 9\nvalue = -0.362", fillcolor="#e5813965"] ;
89 -> 90 ;
91 [label="mse = 0.0\nsamples = 1\nvalue = 0.174", fillcolor="#e5813987"] ;
90 -> 91 ;
92 [label="X <= 3.061\nmse = 0.041\nsamples = 8\nvalue = -0.429", fillcolor="#e5813961"] ;
90 -> 92 ;
93 [label="X <= 2.758\nmse = 0.021\nsamples = 6\nvalue = -0.514", fillcolor="#e581395b"] ;
92 -> 93 ;
94 [label="mse = 0.0\nsamples = 1\nvalue = -0.271", fillcolor="#e581396b"] ;
93 -> 94 ;
95 [label="X <= 2.879\nmse = 0.011\nsamples = 5\nvalue = -0.563", fillcolor="#e5813958"] ;
93 -> 95 ;
96 [label="X <= 2.818\nmse = 0.0\nsamples = 2\nvalue = -0.485", fillcolor="#e581395d"] ;
95 -> 96 ;
97 [label="mse = 0.0\nsamples = 1\nvalue = -0.486", fillcolor="#e581395d"] ;
96 -> 97 ;
98 [label="mse = 0.0\nsamples = 1\nvalue = -0.483", fillcolor="#e581395d"] ;
96 -> 98 ;
99 [label="X <= 3.0\nmse = 0.012\nsamples = 3\nvalue = -0.615", fillcolor="#e5813955"] ;
95 -> 99 ;
100 [label="X <= 2.939\nmse = 0.003\nsamples = 2\nvalue = -0.684", fillcolor="#e5813951"] ;
99 -> 100 ;
101 [label="mse = 0.0\nsamples = 1\nvalue = -0.742", fillcolor="#e581394d"] ;
100 -> 101 ;
102 [label="mse = -0.0\nsamples = 1\nvalue = -0.625", fillcolor="#e5813954"] ;
100 -> 102 ;
103 [label="mse = 0.0\nsamples = 1\nvalue = -0.478", fillcolor="#e581395e"] ;
99 -> 103 ;
104 [label="X <= 3.121\nmse = 0.012\nsamples = 2\nvalue = -0.174", fillcolor="#e5813971"] ;
92 -> 104 ;
105 [label="mse = 0.0\nsamples = 1\nvalue = -0.284", fillcolor="#e581396a"] ;
104 -> 105 ;
106 [label="mse = -0.0\nsamples = 1\nvalue = -0.065", fillcolor="#e5813978"] ;
104 -> 106 ;
107 [label="X <= 3.545\nmse = 0.054\nsamples = 7\nvalue = 0.549", fillcolor="#e581399f"] ;
89 -> 107 ;
108 [label="X <= 3.242\nmse = 0.036\nsamples = 6\nvalue = 0.61", fillcolor="#e58139a3"] ;
107 -> 108 ;
109 [label="mse = 0.0\nsamples = 1\nvalue = 0.305", fillcolor="#e5813990"] ;
108 -> 109 ;
110 [label="X <= 3.485\nmse = 0.021\nsamples = 5\nvalue = 0.671", fillcolor="#e58139a7"] ;
108 -> 110 ;
111 [label="X <= 3.303\nmse = 0.011\nsamples = 4\nvalue = 0.727", fillcolor="#e58139ab"] ;
110 -> 111 ;
112 [label="mse = 0.0\nsamples = 1\nvalue = 0.556", fillcolor="#e58139a0"] ;
111 -> 112 ;
113 [label="X <= 3.424\nmse = 0.001\nsamples = 3\nvalue = 0.784", fillcolor="#e58139ae"] ;
111 -> 113 ;
114 [label="X <= 3.364\nmse = 0.001\nsamples = 2\nvalue = 0.807", fillcolor="#e58139b0"] ;
113 -> 114 ;
115 [label="mse = 0.0\nsamples = 1\nvalue = 0.781", fillcolor="#e58139ae"] ;
114 -> 115 ;
116 [label="mse = 0.0\nsamples = 1\nvalue = 0.833", fillcolor="#e58139b1"] ;
114 -> 116 ;
117 [label="mse = 0.0\nsamples = 1\nvalue = 0.739", fillcolor="#e58139ab"] ;
113 -> 117 ;
118 [label="mse = -0.0\nsamples = 1\nvalue = 0.447", fillcolor="#e5813999"] ;
110 -> 118 ;
119 [label="mse = 0.0\nsamples = 1\nvalue = 0.179", fillcolor="#e5813988"] ;
107 -> 119 ;
120 [label="X <= 5.242\nmse = 0.46\nsamples = 40\nvalue = -0.823", fillcolor="#e5813948"] ;
0 -> 120 [labeldistance=2.5, labelangle=-45, headlabel="False"] ;
121 [label="X <= 4.758\nmse = 0.384\nsamples = 27\nvalue = -1.042", fillcolor="#e581393a"] ;
120 -> 121 ;
122 [label="X <= 4.212\nmse = 0.309\nsamples = 19\nvalue = -0.798", fillcolor="#e5813949"] ;
121 -> 122 ;
123 [label="X <= 3.727\nmse = 0.174\nsamples = 10\nvalue = -1.171", fillcolor="#e5813932"] ;
122 -> 123 ;
124 [label="X <= 3.667\nmse = 0.011\nsamples = 2\nvalue = -0.485", fillcolor="#e581395d"] ;
123 -> 124 ;
125 [label="mse = 0.0\nsamples = 1\nvalue = -0.378", fillcolor="#e5813964"] ;
124 -> 125 ;
126 [label="mse = 0.0\nsamples = 1\nvalue = -0.591", fillcolor="#e5813956"] ;
124 -> 126 ;
127 [label="X <= 4.091\nmse = 0.068\nsamples = 8\nvalue = -1.343", fillcolor="#e5813927"] ;
123 -> 127 ;
128 [label="X <= 3.788\nmse = 0.045\nsamples = 6\nvalue = -1.449", fillcolor="#e5813920"] ;
127 -> 128 ;
129 [label="mse = 0.0\nsamples = 1\nvalue = -1.053", fillcolor="#e5813939"] ;
128 -> 129 ;
130 [label="X <= 4.03\nmse = 0.016\nsamples = 5\nvalue = -1.528", fillcolor="#e581391b"] ;
128 -> 130 ;
131 [label="X <= 3.848\nmse = 0.009\nsamples = 4\nvalue = -1.575", fillcolor="#e5813918"] ;
130 -> 131 ;
132 [label="mse = 0.0\nsamples = 1\nvalue = -1.45", fillcolor="#e5813920"] ;
131 -> 132 ;
133 [label="X <= 3.97\nmse = 0.006\nsamples = 3\nvalue = -1.617", fillcolor="#e5813915"] ;
131 -> 133 ;
134 [label="X <= 3.909\nmse = 0.005\nsamples = 2\nvalue = -1.651", fillcolor="#e5813913"] ;
133 -> 134 ;
135 [label="mse = 0.0\nsamples = 1\nvalue = -1.582", fillcolor="#e5813917"] ;
134 -> 135 ;
136 [label="mse = 0.0\nsamples = 1\nvalue = -1.721", fillcolor="#e581390f"] ;
134 -> 136 ;
137 [label="mse = -0.0\nsamples = 1\nvalue = -1.549", fillcolor="#e5813919"] ;
133 -> 137 ;
138 [label="mse = 0.0\nsamples = 1\nvalue = -1.339", fillcolor="#e5813927"] ;
130 -> 138 ;
139 [label="X <= 4.152\nmse = 0.0\nsamples = 2\nvalue = -1.025", fillcolor="#e581393b"] ;
127 -> 139 ;
140 [label="mse = 0.0\nsamples = 1\nvalue = -1.006", fillcolor="#e581393c"] ;
139 -> 140 ;
141 [label="mse = -0.0\nsamples = 1\nvalue = -1.044", fillcolor="#e581393a"] ;
139 -> 141 ;
142 [label="X <= 4.636\nmse = 0.132\nsamples = 9\nvalue = -0.383", fillcolor="#e5813964"] ;
122 -> 142 ;
143 [label="X <= 4.273\nmse = 0.075\nsamples = 7\nvalue = -0.248", fillcolor="#e581396c"] ;
142 -> 143 ;
144 [label="mse = 0.0\nsamples = 1\nvalue = -0.72", fillcolor="#e581394e"] ;
143 -> 144 ;
145 [label="X <= 4.515\nmse = 0.044\nsamples = 6\nvalue = -0.169", fillcolor="#e5813971"] ;
143 -> 145 ;
146 [label="X <= 4.333\nmse = 0.029\nsamples = 4\nvalue = -0.06", fillcolor="#e5813978"] ;
145 -> 146 ;
147 [label="mse = 0.0\nsamples = 1\nvalue = -0.335", fillcolor="#e5813967"] ;
146 -> 147 ;
148 [label="X <= 4.394\nmse = 0.005\nsamples = 3\nvalue = 0.032", fillcolor="#e581397e"] ;
146 -> 148 ;
149 [label="mse = 0.0\nsamples = 1\nvalue = -0.057", fillcolor="#e5813979"] ;
148 -> 149 ;
150 [label="X <= 4.455\nmse = 0.002\nsamples = 2\nvalue = 0.076", fillcolor="#e5813981"] ;
148 -> 150 ;
151 [label="mse = 0.0\nsamples = 1\nvalue = 0.116", fillcolor="#e5813984"] ;
150 -> 151 ;
152 [label="mse = -0.0\nsamples = 1\nvalue = 0.036", fillcolor="#e581397f"] ;
150 -> 152 ;
153 [label="X <= 4.576\nmse = 0.002\nsamples = 2\nvalue = -0.388", fillcolor="#e5813963"] ;
145 -> 153 ;
154 [label="mse = 0.0\nsamples = 1\nvalue = -0.346", fillcolor="#e5813966"] ;
153 -> 154 ;
155 [label="mse = 0.0\nsamples = 1\nvalue = -0.429", fillcolor="#e5813961"] ;
153 -> 155 ;
156 [label="X <= 4.697\nmse = 0.044\nsamples = 2\nvalue = -0.856", fillcolor="#e5813946"] ;
142 -> 156 ;
157 [label="mse = 0.0\nsamples = 1\nvalue = -0.645", fillcolor="#e5813953"] ;
156 -> 157 ;
158 [label="mse = 0.0\nsamples = 1\nvalue = -1.066", fillcolor="#e5813938"] ;
156 -> 158 ;
159 [label="X <= 5.121\nmse = 0.085\nsamples = 8\nvalue = -1.621", fillcolor="#e5813915"] ;
121 -> 159 ;
160 [label="X <= 4.818\nmse = 0.04\nsamples = 6\nvalue = -1.75", fillcolor="#e581390d"] ;
159 -> 160 ;
161 [label="mse = 0.0\nsamples = 1\nvalue = -1.359", fillcolor="#e5813926"] ;
160 -> 161 ;
162 [label="X <= 5.061\nmse = 0.011\nsamples = 5\nvalue = -1.828", fillcolor="#e5813908"] ;
160 -> 162 ;
163 [label="X <= 4.879\nmse = 0.006\nsamples = 4\nvalue = -1.867", fillcolor="#e5813905"] ;
162 -> 163 ;
164 [label="mse = 0.0\nsamples = 1\nvalue = -1.742", fillcolor="#e581390d"] ;
163 -> 164 ;
165 [label="X <= 5.0\nmse = 0.002\nsamples = 3\nvalue = -1.909", fillcolor="#e5813903"] ;
163 -> 165 ;
166 [label="X <= 4.939\nmse = 0.0\nsamples = 2\nvalue = -1.937", fillcolor="#e5813901"] ;
165 -> 166 ;
167 [label="mse = 0.0\nsamples = 1\nvalue = -1.925", fillcolor="#e5813901"] ;
166 -> 167 ;
168 [label="mse = 0.0\nsamples = 1\nvalue = -1.948", fillcolor="#e5813900"] ;
166 -> 168 ;
169 [label="mse = 0.0\nsamples = 1\nvalue = -1.853", fillcolor="#e5813906"] ;
165 -> 169 ;
170 [label="mse = 0.0\nsamples = 1\nvalue = -1.674", fillcolor="#e5813911"] ;
162 -> 170 ;
171 [label="X <= 5.182\nmse = 0.021\nsamples = 2\nvalue = -1.233", fillcolor="#e581392e"] ;
159 -> 171 ;
172 [label="mse = 0.0\nsamples = 1\nvalue = -1.379", fillcolor="#e5813924"] ;
171 -> 172 ;
173 [label="mse = 0.0\nsamples = 1\nvalue = -1.087", fillcolor="#e5813937"] ;
171 -> 173 ;
174 [label="X <= 5.788\nmse = 0.311\nsamples = 13\nvalue = -0.369", fillcolor="#e5813965"] ;
120 -> 174 ;
175 [label="X <= 5.364\nmse = 0.103\nsamples = 9\nvalue = -0.049", fillcolor="#e5813979"] ;
174 -> 175 ;
176 [label="X <= 5.303\nmse = 0.029\nsamples = 2\nvalue = -0.42", fillcolor="#e5813961"] ;
175 -> 176 ;
177 [label="mse = 0.0\nsamples = 1\nvalue = -0.591", fillcolor="#e5813957"] ;
176 -> 177 ;
178 [label="mse = -0.0\nsamples = 1\nvalue = -0.25", fillcolor="#e581396c"] ;
176 -> 178 ;
179 [label="X <= 5.667\nmse = 0.074\nsamples = 7\nvalue = 0.058", fillcolor="#e5813980"] ;
175 -> 179 ;
180 [label="X <= 5.606\nmse = 0.015\nsamples = 5\nvalue = 0.206", fillcolor="#e5813989"] ;
179 -> 180 ;
181 [label="X <= 5.424\nmse = 0.007\nsamples = 4\nvalue = 0.255", fillcolor="#e581398c"] ;
180 -> 181 ;
182 [label="mse = 0.0\nsamples = 1\nvalue = 0.148", fillcolor="#e5813986"] ;
181 -> 182 ;
183 [label="X <= 5.545\nmse = 0.004\nsamples = 3\nvalue = 0.291", fillcolor="#e581398f"] ;
181 -> 183 ;
184 [label="X <= 5.485\nmse = 0.0\nsamples = 2\nvalue = 0.334", fillcolor="#e5813991"] ;
183 -> 184 ;
185 [label="mse = 0.0\nsamples = 1\nvalue = 0.349", fillcolor="#e5813992"] ;
184 -> 185 ;
186 [label="mse = -0.0\nsamples = 1\nvalue = 0.318", fillcolor="#e5813991"] ;
184 -> 186 ;
187 [label="mse = -0.0\nsamples = 1\nvalue = 0.205", fillcolor="#e5813989"] ;
183 -> 187 ;
188 [label="mse = 0.0\nsamples = 1\nvalue = 0.007", fillcolor="#e581397d"] ;
180 -> 188 ;
189 [label="X <= 5.727\nmse = 0.029\nsamples = 2\nvalue = -0.313", fillcolor="#e5813968"] ;
179 -> 189 ;
190 [label="mse = 0.0\nsamples = 1\nvalue = -0.144", fillcolor="#e5813973"] ;
189 -> 190 ;
191 [label="mse = -0.0\nsamples = 1\nvalue = -0.482", fillcolor="#e581395d"] ;
189 -> 191 ;
192 [label="X <= 5.909\nmse = 0.03\nsamples = 4\nvalue = -1.088", fillcolor="#e5813937"] ;
174 -> 192 ;
193 [label="X <= 5.848\nmse = 0.012\nsamples = 2\nvalue = -0.936", fillcolor="#e5813941"] ;
192 -> 193 ;
194 [label="mse = 0.0\nsamples = 1\nvalue = -0.827", fillcolor="#e5813947"] ;
193 -> 194 ;
195 [label="mse = 0.0\nsamples = 1\nvalue = -1.045", fillcolor="#e581393a"] ;
193 -> 195 ;
196 [label="X <= 5.97\nmse = 0.002\nsamples = 2\nvalue = -1.241", fillcolor="#e581392d"] ;
192 -> 196 ;
197 [label="mse = 0.0\nsamples = 1\nvalue = -1.28", fillcolor="#e581392b"] ;
196 -> 197 ;
198 [label="mse = -0.0\nsamples = 1\nvalue = -1.201", fillcolor="#e5813930"] ;
196 -> 198 ;
}